<?xml version="1.0"?>
<opencv_storage>
<cascade>
  <stageType>BOOST</stageType>
  <featureType>HAAR</featureType>
  <height>25</height>
  <width>25</width>
  <stageParams>
    <boostType>GAB</boostType>
    <minHitRate>9.9500000476837158e-01</minHitRate>
    <maxFalseAlarm>5.0000000000000000e-01</maxFalseAlarm>
    <weightTrimRate>9.4999999999999996e-01</weightTrimRate>
    <maxDepth>1</maxDepth>
    <maxWeakCount>100</maxWeakCount></stageParams>
  <featureParams>
    <maxCatCount>0</maxCatCount>
    <featSize>1</featSize>
    <mode>BASIC</mode></featureParams>
  <stageNum>10</stageNum>
  <stages>
    <!-- stage 0 -->
    <_>
      <maxWeakCount>4</maxWeakCount>
      <stageThreshold>-7.9950588941574097e-01</stageThreshold>
      <weakClassifiers>
        <_>
          <internalNodes>
            0 -1 52 -4.1563659906387329e-03</internalNodes>
          <leafValues>
            6.5609347820281982e-01 -9.4701987504959106e-01</leafValues></_>
        <_>
          <internalNodes>
            0 -1 59 2.3075141012668610e-02</internalNodes>
          <leafValues>
            -5.7121098041534424e-01 6.8513065576553345e-01</leafValues></_>
        <_>
          <internalNodes>
            0 -1 27 6.6299675963819027e-03</internalNodes>
          <leafValues>
            -4.7096705436706543e-01 6.2000370025634766e-01</leafValues></_>
        <_>
          <internalNodes>
            0 -1 29 -2.0502707920968533e-03</internalNodes>
          <leafValues>
            6.6891080141067505e-01 -4.1342133283615112e-01</leafValues></_></weakClassifiers></_>
    <!-- stage 1 -->
    <_>
      <maxWeakCount>3</maxWeakCount>
      <stageThreshold>1.0272000730037689e-01</stageThreshold>
      <weakClassifiers>
        <_>
          <internalNodes>
            0 -1 59 2.3678161203861237e-02</internalNodes>
          <leafValues>
            -3.0442178249359131e-01 7.4451756477355957e-01</leafValues></_>
        <_>
          <internalNodes>
            0 -1 20 3.5903684794902802e-02</internalNodes>
          <leafValues>
            3.5895699262619019e-01 -8.9989113807678223e-01</leafValues></_>
        <_>
          <internalNodes>
            0 -1 43 -1.8662478774785995e-02</internalNodes>
          <leafValues>
            -9.7590225934982300e-01 2.5809362530708313e-01</leafValues></_></weakClassifiers></_>
    <!-- stage 2 -->
    <_>
      <maxWeakCount>8</maxWeakCount>
      <stageThreshold>-8.0903345346450806e-01</stageThreshold>
      <weakClassifiers>
        <_>
          <internalNodes>
            0 -1 83 -1.2846447527408600e-02</internalNodes>
          <leafValues>
            -7.4889868497848511e-01 5.2631580829620361e-01</leafValues></_>
        <_>
          <internalNodes>
            0 -1 48 -5.3145732730627060e-02</internalNodes>
          <leafValues>
            6.1945289373397827e-01 -3.4235376119613647e-01</leafValues></_>
        <_>
          <internalNodes>
            0 -1 39 2.5433510541915894e-02</internalNodes>
          <leafValues>
            -2.5816190242767334e-01 5.9335255622863770e-01</leafValues></_>
        <_>
          <internalNodes>
            0 -1 10 -8.2951346412301064e-03</internalNodes>
          <leafValues>
            4.7589173913002014e-01 -3.4746035933494568e-01</leafValues></_>
        <_>
          <internalNodes>
            0 -1 50 1.9087288528680801e-02</internalNodes>
          <leafValues>
            1.8839469552040100e-01 -9.0479850769042969e-01</leafValues></_>
        <_>
          <internalNodes>
            0 -1 9 -1.6416348516941071e-03</internalNodes>
          <leafValues>
            3.6274683475494385e-01 -4.0379700064659119e-01</leafValues></_>
        <_>
          <internalNodes>
            0 -1 34 2.2950630635023117e-02</internalNodes>
          <leafValues>
            -2.5416094064712524e-01 6.2196844816207886e-01</leafValues></_>
        <_>
          <internalNodes>
            0 -1 96 4.5570879592560232e-04</internalNodes>
          <leafValues>
            -3.7023940682411194e-01 4.1738072037696838e-01</leafValues></_></weakClassifiers></_>
    <!-- stage 3 -->
    <_>
      <maxWeakCount>8</maxWeakCount>
      <stageThreshold>-8.4434163570404053e-01</stageThreshold>
      <weakClassifiers>
        <_>
          <internalNodes>
            0 -1 62 -5.9731686487793922e-03</internalNodes>
          <leafValues>
            4.8418673872947693e-01 -8.3139532804489136e-01</leafValues></_>
        <_>
          <internalNodes>
            0 -1 11 -1.6367101669311523e-01</internalNodes>
          <leafValues>
            -9.4011110067367554e-01 2.2044296562671661e-01</leafValues></_>
        <_>
          <internalNodes>
            0 -1 29 -2.8850121889263391e-03</internalNodes>
          <leafValues>
            4.1813850402832031e-01 -3.8852268457412720e-01</leafValues></_>
        <_>
          <internalNodes>
            0 -1 0 3.1331475824117661e-02</internalNodes>
          <leafValues>
            -2.4034559726715088e-01 6.0271352529525757e-01</leafValues></_>
        <_>
          <internalNodes>
            0 -1 89 -4.2521837167441845e-03</internalNodes>
          <leafValues>
            3.8604009151458740e-01 -4.2067354917526245e-01</leafValues></_>
        <_>
          <internalNodes>
            0 -1 23 -8.3548165857791901e-03</internalNodes>
          <leafValues>
            -9.2425054311752319e-01 1.7573250830173492e-01</leafValues></_>
        <_>
          <internalNodes>
            0 -1 16 -6.8890565307810903e-04</internalNodes>
          <leafValues>
            2.2952750325202942e-01 -5.9258055686950684e-01</leafValues></_>
        <_>
          <internalNodes>
            0 -1 25 6.9961203262209892e-03</internalNodes>
          <leafValues>
            -3.8037416338920593e-01 3.3203268051147461e-01</leafValues></_></weakClassifiers></_>
    <!-- stage 4 -->
    <_>
      <maxWeakCount>11</maxWeakCount>
      <stageThreshold>-6.8922472000122070e-01</stageThreshold>
      <weakClassifiers>
        <_>
          <internalNodes>
            0 -1 32 -4.0080631151795387e-03</internalNodes>
          <leafValues>
            4.5347985625267029e-01 -8.8148146867752075e-01</leafValues></_>
        <_>
          <internalNodes>
            0 -1 35 -3.7933546118438244e-03</internalNodes>
          <leafValues>
            3.3490946888923645e-01 -4.7859609127044678e-01</leafValues></_>
        <_>
          <internalNodes>
            0 -1 60 2.8582537546753883e-02</internalNodes>
          <leafValues>
            1.1335060000419617e-01 -9.0727299451828003e-01</leafValues></_>
        <_>
          <internalNodes>
            0 -1 24 -8.5654631257057190e-03</internalNodes>
          <leafValues>
            4.7068887948989868e-01 -3.1777092814445496e-01</leafValues></_>
        <_>
          <internalNodes>
            0 -1 5 1.6424531117081642e-02</internalNodes>
          <leafValues>
            -2.8236559033393860e-01 5.0141441822052002e-01</leafValues></_>
        <_>
          <internalNodes>
            0 -1 61 -1.7443353310227394e-02</internalNodes>
          <leafValues>
            -8.5368889570236206e-01 1.3977420330047607e-01</leafValues></_>
        <_>
          <internalNodes>
            0 -1 8 2.3884561378508806e-03</internalNodes>
          <leafValues>
            -2.6808169484138489e-01 5.2746289968490601e-01</leafValues></_>
        <_>
          <internalNodes>
            0 -1 51 5.4118148982524872e-02</internalNodes>
          <leafValues>
            1.3008110225200653e-01 -8.9502859115600586e-01</leafValues></_>
        <_>
          <internalNodes>
            0 -1 87 -9.6654640510678291e-03</internalNodes>
          <leafValues>
            3.2447701692581177e-01 -3.5688331723213196e-01</leafValues></_>
        <_>
          <internalNodes>
            0 -1 56 -9.9086132831871510e-04</internalNodes>
          <leafValues>
            2.7924019098281860e-01 -4.1087478399276733e-01</leafValues></_>
        <_>
          <internalNodes>
            0 -1 76 -3.4311758354306221e-03</internalNodes>
          <leafValues>
            -8.4184104204177856e-01 1.3987664878368378e-01</leafValues></_></weakClassifiers></_>
    <!-- stage 5 -->
    <_>
      <maxWeakCount>13</maxWeakCount>
      <stageThreshold>-9.3898344039916992e-01</stageThreshold>
      <weakClassifiers>
        <_>
          <internalNodes>
            0 -1 79 2.6372983120381832e-04</internalNodes>
          <leafValues>
            5.3028321266174316e-01 -3.0780142545700073e-01</leafValues></_>
        <_>
          <internalNodes>
            0 -1 90 1.5837337821722031e-02</internalNodes>
          <leafValues>
            -2.0261336863040924e-01 5.8737176656723022e-01</leafValues></_>
        <_>
          <internalNodes>
            0 -1 80 -3.9562507299706340e-04</internalNodes>
          <leafValues>
            -6.3586682081222534e-01 1.9155029952526093e-01</leafValues></_>
        <_>
          <internalNodes>
            0 -1 31 -1.5868186019361019e-03</internalNodes>
          <leafValues>
            3.4128177165985107e-01 -3.4151649475097656e-01</leafValues></_>
        <_>
          <internalNodes>
            0 -1 21 -1.9106632098555565e-03</internalNodes>
          <leafValues>
            2.6456829905509949e-01 -4.3268048763275146e-01</leafValues></_>
        <_>
          <internalNodes>
            0 -1 66 -1.2267292477190495e-03</internalNodes>
          <leafValues>
            2.3556926846504211e-01 -4.9250447750091553e-01</leafValues></_>
        <_>
          <internalNodes>
            0 -1 58 -4.1036419570446014e-02</internalNodes>
          <leafValues>
            -8.9605700969696045e-01 1.3163095712661743e-01</leafValues></_>
        <_>
          <internalNodes>
            0 -1 65 -1.0994856711477041e-03</internalNodes>
          <leafValues>
            3.2533469796180725e-01 -3.2865300774574280e-01</leafValues></_>
        <_>
          <internalNodes>
            0 -1 94 -3.3425770699977875e-02</internalNodes>
          <leafValues>
            5.4176056385040283e-01 -2.3636902868747711e-01</leafValues></_>
        <_>
          <internalNodes>
            0 -1 17 2.4369452148675919e-03</internalNodes>
          <leafValues>
            -3.5031068325042725e-01 3.3664682507514954e-01</leafValues></_>
        <_>
          <internalNodes>
            0 -1 46 1.9194990396499634e-02</internalNodes>
          <leafValues>
            -1.8703435361385345e-01 5.9821856021881104e-01</leafValues></_>
        <_>
          <internalNodes>
            0 -1 78 -1.8346265424042940e-03</internalNodes>
          <leafValues>
            3.1042942404747009e-01 -3.5930213332176208e-01</leafValues></_>
        <_>
          <internalNodes>
            0 -1 9 -3.5825599916279316e-03</internalNodes>
          <leafValues>
            4.1219577193260193e-01 -2.7649512887001038e-01</leafValues></_></weakClassifiers></_>
    <!-- stage 6 -->
    <_>
      <maxWeakCount>12</maxWeakCount>
      <stageThreshold>-8.4956812858581543e-01</stageThreshold>
      <weakClassifiers>
        <_>
          <internalNodes>
            0 -1 13 -1.2638229131698608e-01</internalNodes>
          <leafValues>
            -8.9954340457916260e-01 4.3042072653770447e-01</leafValues></_>
        <_>
          <internalNodes>
            0 -1 3 7.5471028685569763e-03</internalNodes>
          <leafValues>
            -2.1976554393768311e-01 5.5564695596694946e-01</leafValues></_>
        <_>
          <internalNodes>
            0 -1 84 -1.2212594971060753e-02</internalNodes>
          <leafValues>
            2.6962774991989136e-01 -4.5791634917259216e-01</leafValues></_>
        <_>
          <internalNodes>
            0 -1 30 6.6580638289451599e-02</internalNodes>
          <leafValues>
            1.2126674503087997e-01 -8.5733699798583984e-01</leafValues></_>
        <_>
          <internalNodes>
            0 -1 97 1.6691811382770538e-02</internalNodes>
          <leafValues>
            -2.1052522957324982e-01 6.5411835908889771e-01</leafValues></_>
        <_>
          <internalNodes>
            0 -1 54 3.5597784444689751e-03</internalNodes>
          <leafValues>
            -1.5423716604709625e-01 6.2089198827743530e-01</leafValues></_>
        <_>
          <internalNodes>
            0 -1 42 -6.9760759361088276e-03</internalNodes>
          <leafValues>
            -7.2486984729766846e-01 1.4172938466072083e-01</leafValues></_>
        <_>
          <internalNodes>
            0 -1 64 3.6816722713410854e-03</internalNodes>
          <leafValues>
            -2.0042632520198822e-01 6.4317888021469116e-01</leafValues></_>
        <_>
          <internalNodes>
            0 -1 91 -7.4398092692717910e-04</internalNodes>
          <leafValues>
            3.2221838831901550e-01 -3.7254869937896729e-01</leafValues></_>
        <_>
          <internalNodes>
            0 -1 75 3.2493858598172665e-03</internalNodes>
          <leafValues>
            -1.5914596617221832e-01 6.7571038007736206e-01</leafValues></_>
        <_>
          <internalNodes>
            0 -1 73 -5.8874371461570263e-03</internalNodes>
          <leafValues>
            -6.9418340921401978e-01 1.8022598326206207e-01</leafValues></_>
        <_>
          <internalNodes>
            0 -1 38 -1.1826852278318256e-04</internalNodes>
          <leafValues>
            -4.7851926088333130e-01 1.9821962714195251e-01</leafValues></_></weakClassifiers></_>
    <!-- stage 7 -->
    <_>
      <maxWeakCount>15</maxWeakCount>
      <stageThreshold>-8.7831175327301025e-01</stageThreshold>
      <weakClassifiers>
        <_>
          <internalNodes>
            0 -1 70 2.6694543659687042e-02</internalNodes>
          <leafValues>
            4.4626864790916443e-01 -6.1250001192092896e-01</leafValues></_>
        <_>
          <internalNodes>
            0 -1 6 -1.0000372305512428e-02</internalNodes>
          <leafValues>
            2.1717250347137451e-01 -5.8887046575546265e-01</leafValues></_>
        <_>
          <internalNodes>
            0 -1 18 -1.4589710161089897e-02</internalNodes>
          <leafValues>
            3.2400453090667725e-01 -3.3288434147834778e-01</leafValues></_>
        <_>
          <internalNodes>
            0 -1 77 -1.5691202133893967e-02</internalNodes>
          <leafValues>
            3.3999004960060120e-01 -3.6995959281921387e-01</leafValues></_>
        <_>
          <internalNodes>
            0 -1 49 -5.1454035565257072e-03</internalNodes>
          <leafValues>
            6.6509991884231567e-01 -1.7927324771881104e-01</leafValues></_>
        <_>
          <internalNodes>
            0 -1 57 3.0359716620296240e-03</internalNodes>
          <leafValues>
            -1.8399554491043091e-01 5.1014649868011475e-01</leafValues></_>
        <_>
          <internalNodes>
            0 -1 63 -8.1026111729443073e-04</internalNodes>
          <leafValues>
            3.5939529538154602e-01 -2.6666730642318726e-01</leafValues></_>
        <_>
          <internalNodes>
            0 -1 14 1.9378444179892540e-02</internalNodes>
          <leafValues>
            1.6089884936809540e-01 -6.7216205596923828e-01</leafValues></_>
        <_>
          <internalNodes>
            0 -1 81 2.5338254636153579e-04</internalNodes>
          <leafValues>
            1.8611809611320496e-01 -4.7949108481407166e-01</leafValues></_>
        <_>
          <internalNodes>
            0 -1 93 -2.1019540727138519e-03</internalNodes>
          <leafValues>
            -7.1209704875946045e-01 1.1076942086219788e-01</leafValues></_>
        <_>
          <internalNodes>
            0 -1 26 7.7436189167201519e-04</internalNodes>
          <leafValues>
            -3.7268394231796265e-01 2.3706303536891937e-01</leafValues></_>
        <_>
          <internalNodes>
            0 -1 23 -6.9395177997648716e-03</internalNodes>
          <leafValues>
            -8.6911976337432861e-01 9.0409561991691589e-02</leafValues></_>
        <_>
          <internalNodes>
            0 -1 69 2.0792993018403649e-04</internalNodes>
          <leafValues>
            1.8733869493007660e-01 -4.6724787354469299e-01</leafValues></_>
        <_>
          <internalNodes>
            0 -1 28 -1.0320084169507027e-02</internalNodes>
          <leafValues>
            3.3388555049896240e-01 -2.8247293829917908e-01</leafValues></_>
        <_>
          <internalNodes>
            0 -1 67 -5.2917492575943470e-03</internalNodes>
          <leafValues>
            -9.2744195461273193e-01 9.9940881133079529e-02</leafValues></_></weakClassifiers></_>
    <!-- stage 8 -->
    <_>
      <maxWeakCount>15</maxWeakCount>
      <stageThreshold>-6.8640458583831787e-01</stageThreshold>
      <weakClassifiers>
        <_>
          <internalNodes>
            0 -1 40 2.8004981577396393e-02</internalNodes>
          <leafValues>
            4.2270269989967346e-01 -7.6888889074325562e-01</leafValues></_>
        <_>
          <internalNodes>
            0 -1 12 -1.0271551087498665e-02</internalNodes>
          <leafValues>
            2.9693734645843506e-01 -4.0642163157463074e-01</leafValues></_>
        <_>
          <internalNodes>
            0 -1 1 7.7108509838581085e-02</internalNodes>
          <leafValues>
            -1.9028651714324951e-01 6.5799200534820557e-01</leafValues></_>
        <_>
          <internalNodes>
            0 -1 19 4.7626025043427944e-03</internalNodes>
          <leafValues>
            -2.6219496130943298e-01 3.9214152097702026e-01</leafValues></_>
        <_>
          <internalNodes>
            0 -1 95 1.8519385776016861e-04</internalNodes>
          <leafValues>
            2.2107677161693573e-01 -5.0419843196868896e-01</leafValues></_>
        <_>
          <internalNodes>
            0 -1 22 2.4290450382977724e-03</internalNodes>
          <leafValues>
            -5.1592063903808594e-01 1.5183362364768982e-01</leafValues></_>
        <_>
          <internalNodes>
            0 -1 72 3.7588342092931271e-04</internalNodes>
          <leafValues>
            -4.5938414335250854e-01 2.0098464190959930e-01</leafValues></_>
        <_>
          <internalNodes>
            0 -1 44 1.5952305868268013e-02</internalNodes>
          <leafValues>
            1.2068568170070648e-01 -8.2336235046386719e-01</leafValues></_>
        <_>
          <internalNodes>
            0 -1 71 2.6065335259772837e-04</internalNodes>
          <leafValues>
            1.4503732323646545e-01 -5.6428951025009155e-01</leafValues></_>
        <_>
          <internalNodes>
            0 -1 53 9.5942837651818991e-04</internalNodes>
          <leafValues>
            -1.9663979113101959e-01 4.7140452265739441e-01</leafValues></_>
        <_>
          <internalNodes>
            0 -1 74 3.9965454488992691e-03</internalNodes>
          <leafValues>
            -1.5053865313529968e-01 6.6668903827667236e-01</leafValues></_>
        <_>
          <internalNodes>
            0 -1 98 5.1684351637959480e-03</internalNodes>
          <leafValues>
            -2.1877060830593109e-01 4.2778056859970093e-01</leafValues></_>
        <_>
          <internalNodes>
            0 -1 15 -2.2000385448336601e-02</internalNodes>
          <leafValues>
            -9.6179860830307007e-01 9.8344668745994568e-02</leafValues></_>
        <_>
          <internalNodes>
            0 -1 99 -4.1655823588371277e-03</internalNodes>
          <leafValues>
            4.7848221659660339e-01 -2.0746128261089325e-01</leafValues></_>
        <_>
          <internalNodes>
            0 -1 100 1.5231890138238668e-03</internalNodes>
          <leafValues>
            -2.3518677055835724e-01 3.7187948822975159e-01</leafValues></_></weakClassifiers></_>
    <!-- stage 9 -->
    <_>
      <maxWeakCount>16</maxWeakCount>
      <stageThreshold>-8.3367222547531128e-01</stageThreshold>
      <weakClassifiers>
        <_>
          <internalNodes>
            0 -1 55 1.7536444589495659e-02</internalNodes>
          <leafValues>
            4.1365748643875122e-01 -7.7339899539947510e-01</leafValues></_>
        <_>
          <internalNodes>
            0 -1 68 1.4425346627831459e-02</internalNodes>
          <leafValues>
            -3.6601284146308899e-01 3.3482217788696289e-01</leafValues></_>
        <_>
          <internalNodes>
            0 -1 92 -4.6549941180273890e-04</internalNodes>
          <leafValues>
            2.4026969075202942e-01 -4.0571591258049011e-01</leafValues></_>
        <_>
          <internalNodes>
            0 -1 2 4.4630087912082672e-02</internalNodes>
          <leafValues>
            -1.9497795403003693e-01 5.3598237037658691e-01</leafValues></_>
        <_>
          <internalNodes>
            0 -1 4 -8.9333793148398399e-03</internalNodes>
          <leafValues>
            4.5250734686851501e-01 -2.3692841827869415e-01</leafValues></_>
        <_>
          <internalNodes>
            0 -1 47 -2.4029484018683434e-02</internalNodes>
          <leafValues>
            -7.2336697578430176e-01 1.8506249785423279e-01</leafValues></_>
        <_>
          <internalNodes>
            0 -1 7 2.1544673945754766e-03</internalNodes>
          <leafValues>
            -2.1720591187477112e-01 4.0303105115890503e-01</leafValues></_>
        <_>
          <internalNodes>
            0 -1 88 4.5263406354933977e-04</internalNodes>
          <leafValues>
            -4.1408187150955200e-01 2.3098403215408325e-01</leafValues></_>
        <_>
          <internalNodes>
            0 -1 85 1.2463783787097782e-04</internalNodes>
          <leafValues>
            1.5173839032649994e-01 -5.1071858406066895e-01</leafValues></_>
        <_>
          <internalNodes>
            0 -1 82 -4.7769458615221083e-04</internalNodes>
          <leafValues>
            3.4948951005935669e-01 -2.6799592375755310e-01</leafValues></_>
        <_>
          <internalNodes>
            0 -1 86 -2.2841538884676993e-04</internalNodes>
          <leafValues>
            -4.9827635288238525e-01 2.1905867755413055e-01</leafValues></_>
        <_>
          <internalNodes>
            0 -1 41 -1.4203332830220461e-03</internalNodes>
          <leafValues>
            3.3401903510093689e-01 -2.7014127373695374e-01</leafValues></_>
        <_>
          <internalNodes>
            0 -1 33 -5.3740188013762236e-04</internalNodes>
          <leafValues>
            2.4873363971710205e-01 -3.3906412124633789e-01</leafValues></_>
        <_>
          <internalNodes>
            0 -1 37 3.3720020204782486e-02</internalNodes>
          <leafValues>
            9.7925990819931030e-02 -8.4107744693756104e-01</leafValues></_>
        <_>
          <internalNodes>
            0 -1 36 -9.0696737170219421e-03</internalNodes>
          <leafValues>
            -7.7375459671020508e-01 9.4726569950580597e-02</leafValues></_>
        <_>
          <internalNodes>
            0 -1 45 5.3314981050789356e-03</internalNodes>
          <leafValues>
            -1.8131481111049652e-01 4.6786049008369446e-01</leafValues></_></weakClassifiers></_></stages>
  <features>
    <_>
      <rects>
        <_>
          0 3 4 18 -1.</_>
        <_>
          2 3 2 18 2.</_></rects>
      <tilted>0</tilted></_>
    <_>
      <rects>
        <_>
          0 3 8 19 -1.</_>
        <_>
          4 3 4 19 2.</_></rects>
      <tilted>0</tilted></_>
    <_>
      <rects>
        <_>
          0 8 6 13 -1.</_>
        <_>
          3 8 3 13 2.</_></rects>
      <tilted>0</tilted></_>
    <_>
      <rects>
        <_>
          1 6 2 15 -1.</_>
        <_>
          2 6 1 15 2.</_></rects>
      <tilted>0</tilted></_>
    <_>
      <rects>
        <_>
          1 9 4 8 -1.</_>
        <_>
          3 9 2 8 2.</_></rects>
      <tilted>0</tilted></_>
    <_>
      <rects>
        <_>
          2 5 6 12 -1.</_>
        <_>
          2 5 3 6 2.</_>
        <_>
          5 11 3 6 2.</_></rects>
      <tilted>0</tilted></_>
    <_>
      <rects>
        <_>
          2 11 16 10 -1.</_>
        <_>
          2 11 8 5 2.</_>
        <_>
          10 16 8 5 2.</_></rects>
      <tilted>0</tilted></_>
    <_>
      <rects>
        <_>
          2 12 3 2 -1.</_>
        <_>
          3 12 1 2 3.</_></rects>
      <tilted>0</tilted></_>
    <_>
      <rects>
        <_>
          2 12 2 3 -1.</_>
        <_>
          3 12 1 3 2.</_></rects>
      <tilted>0</tilted></_>
    <_>
      <rects>
        <_>
          2 16 6 1 -1.</_>
        <_>
          5 16 3 1 2.</_></rects>
      <tilted>0</tilted></_>
    <_>
      <rects>
        <_>
          3 4 6 5 -1.</_>
        <_>
          6 4 3 5 2.</_></rects>
      <tilted>0</tilted></_>
    <_>
      <rects>
        <_>
          3 5 16 18 -1.</_>
        <_>
          3 14 16 9 2.</_></rects>
      <tilted>0</tilted></_>
    <_>
      <rects>
        <_>
          3 6 8 15 -1.</_>
        <_>
          7 6 4 15 2.</_></rects>
      <tilted>0</tilted></_>
    <_>
      <rects>
        <_>
          3 6 15 14 -1.</_>
        <_>
          3 13 15 7 2.</_></rects>
      <tilted>0</tilted></_>
    <_>
      <rects>
        <_>
          3 8 12 10 -1.</_>
        <_>
          7 8 4 10 3.</_></rects>
      <tilted>0</tilted></_>
    <_>
      <rects>
        <_>
          3 9 21 6 -1.</_>
        <_>
          3 11 21 2 3.</_></rects>
      <tilted>0</tilted></_>
    <_>
      <rects>
        <_>
          3 18 16 2 -1.</_>
        <_>
          11 18 8 2 2.</_></rects>
      <tilted>0</tilted></_>
    <_>
      <rects>
        <_>
          3 20 11 2 -1.</_>
        <_>
          3 21 11 1 2.</_></rects>
      <tilted>0</tilted></_>
    <_>
      <rects>
        <_>
          4 3 15 7 -1.</_>
        <_>
          9 3 5 7 3.</_></rects>
      <tilted>0</tilted></_>
    <_>
      <rects>
        <_>
          4 5 6 4 -1.</_>
        <_>
          4 5 3 2 2.</_>
        <_>
          7 7 3 2 2.</_></rects>
      <tilted>0</tilted></_>
    <_>
      <rects>
        <_>
          4 5 14 16 -1.</_>
        <_>
          11 5 7 16 2.</_></rects>
      <tilted>0</tilted></_>
    <_>
      <rects>
        <_>
          4 8 6 3 -1.</_>
        <_>
          6 8 2 3 3.</_></rects>
      <tilted>0</tilted></_>
    <_>
      <rects>
        <_>
          4 10 18 2 -1.</_>
        <_>
          10 10 6 2 3.</_></rects>
      <tilted>0</tilted></_>
    <_>
      <rects>
        <_>
          4 11 12 3 -1.</_>
        <_>
          10 11 6 3 2.</_></rects>
      <tilted>0</tilted></_>
    <_>
      <rects>
        <_>
          4 17 4 5 -1.</_>
        <_>
          6 17 2 5 2.</_></rects>
      <tilted>0</tilted></_>
    <_>
      <rects>
        <_>
          4 18 9 4 -1.</_>
        <_>
          4 20 9 2 2.</_></rects>
      <tilted>0</tilted></_>
    <_>
      <rects>
        <_>
          4 19 7 2 -1.</_>
        <_>
          4 20 7 1 2.</_></rects>
      <tilted>0</tilted></_>
    <_>
      <rects>
        <_>
          4 19 8 4 -1.</_>
        <_>
          4 21 8 2 2.</_></rects>
      <tilted>0</tilted></_>
    <_>
      <rects>
        <_>
          5 3 7 4 -1.</_>
        <_>
          5 5 7 2 2.</_></rects>
      <tilted>0</tilted></_>
    <_>
      <rects>
        <_>
          5 4 7 2 -1.</_>
        <_>
          5 5 7 1 2.</_></rects>
      <tilted>0</tilted></_>
    <_>
      <rects>
        <_>
          5 4 15 18 -1.</_>
        <_>
          5 13 15 9 2.</_></rects>
      <tilted>0</tilted></_>
    <_>
      <rects>
        <_>
          5 5 5 2 -1.</_>
        <_>
          5 6 5 1 2.</_></rects>
      <tilted>0</tilted></_>
    <_>
      <rects>
        <_>
          5 11 14 8 -1.</_>
        <_>
          5 15 14 4 2.</_></rects>
      <tilted>0</tilted></_>
    <_>
      <rects>
        <_>
          5 16 6 2 -1.</_>
        <_>
          5 16 3 1 2.</_>
        <_>
          8 17 3 1 2.</_></rects>
      <tilted>0</tilted></_>
    <_>
      <rects>
        <_>
          5 19 9 6 -1.</_>
        <_>
          5 21 9 2 3.</_></rects>
      <tilted>0</tilted></_>
    <_>
      <rects>
        <_>
          6 4 15 5 -1.</_>
        <_>
          11 4 5 5 3.</_></rects>
      <tilted>0</tilted></_>
    <_>
      <rects>
        <_>
          6 8 12 5 -1.</_>
        <_>
          10 8 4 5 3.</_></rects>
      <tilted>0</tilted></_>
    <_>
      <rects>
        <_>
          6 9 12 4 -1.</_>
        <_>
          10 9 4 4 3.</_></rects>
      <tilted>0</tilted></_>
    <_>
      <rects>
        <_>
          6 17 1 2 -1.</_>
        <_>
          6 18 1 1 2.</_></rects>
      <tilted>0</tilted></_>
    <_>
      <rects>
        <_>
          7 1 13 6 -1.</_>
        <_>
          7 3 13 2 3.</_></rects>
      <tilted>0</tilted></_>
    <_>
      <rects>
        <_>
          7 3 8 17 -1.</_>
        <_>
          11 3 4 17 2.</_></rects>
      <tilted>0</tilted></_>
    <_>
      <rects>
        <_>
          7 6 3 8 -1.</_>
        <_>
          8 6 1 8 3.</_></rects>
      <tilted>0</tilted></_>
    <_>
      <rects>
        <_>
          7 7 4 9 -1.</_>
        <_>
          7 10 4 3 3.</_></rects>
      <tilted>0</tilted></_>
    <_>
      <rects>
        <_>
          7 8 8 10 -1.</_>
        <_>
          11 8 4 10 2.</_></rects>
      <tilted>0</tilted></_>
    <_>
      <rects>
        <_>
          7 12 9 3 -1.</_>
        <_>
          10 12 3 3 3.</_></rects>
      <tilted>0</tilted></_>
    <_>
      <rects>
        <_>
          7 23 12 2 -1.</_>
        <_>
          7 23 6 1 2.</_>
        <_>
          13 24 6 1 2.</_></rects>
      <tilted>0</tilted></_>
    <_>
      <rects>
        <_>
          8 1 12 4 -1.</_>
        <_>
          8 3 12 2 2.</_></rects>
      <tilted>0</tilted></_>
    <_>
      <rects>
        <_>
          8 6 6 16 -1.</_>
        <_>
          11 6 3 16 2.</_></rects>
      <tilted>0</tilted></_>
    <_>
      <rects>
        <_>
          8 15 12 9 -1.</_>
        <_>
          8 18 12 3 3.</_></rects>
      <tilted>0</tilted></_>
    <_>
      <rects>
        <_>
          8 23 5 2 -1.</_>
        <_>
          8 24 5 1 2.</_></rects>
      <tilted>0</tilted></_>
    <_>
      <rects>
        <_>
          9 4 6 14 -1.</_>
        <_>
          12 4 3 14 2.</_></rects>
      <tilted>0</tilted></_>
    <_>
      <rects>
        <_>
          9 7 12 12 -1.</_>
        <_>
          13 7 4 12 3.</_></rects>
      <tilted>0</tilted></_>
    <_>
      <rects>
        <_>
          9 11 7 8 -1.</_>
        <_>
          9 15 7 4 2.</_></rects>
      <tilted>0</tilted></_>
    <_>
      <rects>
        <_>
          9 12 2 1 -1.</_>
        <_>
          10 12 1 1 2.</_></rects>
      <tilted>0</tilted></_>
    <_>
      <rects>
        <_>
          9 12 3 2 -1.</_>
        <_>
          10 12 1 2 3.</_></rects>
      <tilted>0</tilted></_>
    <_>
      <rects>
        <_>
          9 13 9 6 -1.</_>
        <_>
          12 13 3 6 3.</_></rects>
      <tilted>0</tilted></_>
    <_>
      <rects>
        <_>
          9 20 4 4 -1.</_>
        <_>
          11 20 2 4 2.</_></rects>
      <tilted>0</tilted></_>
    <_>
      <rects>
        <_>
          10 2 4 2 -1.</_>
        <_>
          10 3 4 1 2.</_></rects>
      <tilted>0</tilted></_>
    <_>
      <rects>
        <_>
          10 3 9 17 -1.</_>
        <_>
          13 3 3 17 3.</_></rects>
      <tilted>0</tilted></_>
    <_>
      <rects>
        <_>
          10 5 7 8 -1.</_>
        <_>
          10 9 7 4 2.</_></rects>
      <tilted>0</tilted></_>
    <_>
      <rects>
        <_>
          10 8 10 12 -1.</_>
        <_>
          15 8 5 12 2.</_></rects>
      <tilted>0</tilted></_>
    <_>
      <rects>
        <_>
          10 9 6 10 -1.</_>
        <_>
          13 9 3 10 2.</_></rects>
      <tilted>0</tilted></_>
    <_>
      <rects>
        <_>
          10 9 4 12 -1.</_>
        <_>
          10 15 4 6 2.</_></rects>
      <tilted>0</tilted></_>
    <_>
      <rects>
        <_>
          10 10 2 4 -1.</_>
        <_>
          11 10 1 4 2.</_></rects>
      <tilted>0</tilted></_>
    <_>
      <rects>
        <_>
          10 12 3 2 -1.</_>
        <_>
          11 12 1 2 3.</_></rects>
      <tilted>0</tilted></_>
    <_>
      <rects>
        <_>
          10 12 4 3 -1.</_>
        <_>
          12 12 2 3 2.</_></rects>
      <tilted>0</tilted></_>
    <_>
      <rects>
        <_>
          10 15 3 6 -1.</_>
        <_>
          10 17 3 2 3.</_></rects>
      <tilted>0</tilted></_>
    <_>
      <rects>
        <_>
          11 3 3 6 -1.</_>
        <_>
          12 3 1 6 3.</_></rects>
      <tilted>0</tilted></_>
    <_>
      <rects>
        <_>
          11 4 3 10 -1.</_>
        <_>
          11 9 3 5 2.</_></rects>
      <tilted>0</tilted></_>
    <_>
      <rects>
        <_>
          11 5 3 2 -1.</_>
        <_>
          12 5 1 2 3.</_></rects>
      <tilted>0</tilted></_>
    <_>
      <rects>
        <_>
          11 5 9 11 -1.</_>
        <_>
          14 5 3 11 3.</_></rects>
      <tilted>0</tilted></_>
    <_>
      <rects>
        <_>
          11 6 4 1 -1.</_>
        <_>
          13 6 2 1 2.</_></rects>
      <tilted>0</tilted></_>
    <_>
      <rects>
        <_>
          11 10 3 9 -1.</_>
        <_>
          11 13 3 3 3.</_></rects>
      <tilted>0</tilted></_>
    <_>
      <rects>
        <_>
          11 10 9 9 -1.</_>
        <_>
          14 10 3 9 3.</_></rects>
      <tilted>0</tilted></_>
    <_>
      <rects>
        <_>
          11 11 3 2 -1.</_>
        <_>
          12 11 1 2 3.</_></rects>
      <tilted>0</tilted></_>
    <_>
      <rects>
        <_>
          11 12 3 2 -1.</_>
        <_>
          12 12 1 2 3.</_></rects>
      <tilted>0</tilted></_>
    <_>
      <rects>
        <_>
          12 4 3 5 -1.</_>
        <_>
          13 4 1 5 3.</_></rects>
      <tilted>0</tilted></_>
    <_>
      <rects>
        <_>
          12 4 12 8 -1.</_>
        <_>
          16 4 4 8 3.</_></rects>
      <tilted>0</tilted></_>
    <_>
      <rects>
        <_>
          12 4 9 2 -1.</_>
        <_>
          12 5 9 1 2.</_></rects>
      <tilted>0</tilted></_>
    <_>
      <rects>
        <_>
          12 5 3 2 -1.</_>
        <_>
          13 5 1 2 3.</_></rects>
      <tilted>0</tilted></_>
    <_>
      <rects>
        <_>
          12 6 3 1 -1.</_>
        <_>
          13 6 1 1 3.</_></rects>
      <tilted>0</tilted></_>
    <_>
      <rects>
        <_>
          12 6 3 2 -1.</_>
        <_>
          13 6 1 2 3.</_></rects>
      <tilted>0</tilted></_>
    <_>
      <rects>
        <_>
          12 9 3 4 -1.</_>
        <_>
          12 11 3 2 2.</_></rects>
      <tilted>0</tilted></_>
    <_>
      <rects>
        <_>
          12 10 9 9 -1.</_>
        <_>
          15 10 3 9 3.</_></rects>
      <tilted>0</tilted></_>
    <_>
      <rects>
        <_>
          13 5 12 8 -1.</_>
        <_>
          13 5 6 4 2.</_>
        <_>
          19 9 6 4 2.</_></rects>
      <tilted>0</tilted></_>
    <_>
      <rects>
        <_>
          13 7 2 1 -1.</_>
        <_>
          14 7 1 1 2.</_></rects>
      <tilted>0</tilted></_>
    <_>
      <rects>
        <_>
          13 7 3 1 -1.</_>
        <_>
          14 7 1 1 3.</_></rects>
      <tilted>0</tilted></_>
    <_>
      <rects>
        <_>
          14 6 9 5 -1.</_>
        <_>
          17 6 3 5 3.</_></rects>
      <tilted>0</tilted></_>
    <_>
      <rects>
        <_>
          15 20 8 2 -1.</_>
        <_>
          15 21 8 1 2.</_></rects>
      <tilted>0</tilted></_>
    <_>
      <rects>
        <_>
          16 4 5 4 -1.</_>
        <_>
          16 6 5 2 2.</_></rects>
      <tilted>0</tilted></_>
    <_>
      <rects>
        <_>
          16 15 8 6 -1.</_>
        <_>
          16 15 4 3 2.</_>
        <_>
          20 18 4 3 2.</_></rects>
      <tilted>0</tilted></_>
    <_>
      <rects>
        <_>
          16 16 6 4 -1.</_>
        <_>
          18 16 2 4 3.</_></rects>
      <tilted>0</tilted></_>
    <_>
      <rects>
        <_>
          17 5 4 2 -1.</_>
        <_>
          17 6 4 1 2.</_></rects>
      <tilted>0</tilted></_>
    <_>
      <rects>
        <_>
          17 6 3 3 -1.</_>
        <_>
          18 6 1 3 3.</_></rects>
      <tilted>0</tilted></_>
    <_>
      <rects>
        <_>
          17 7 8 10 -1.</_>
        <_>
          17 7 4 5 2.</_>
        <_>
          21 12 4 5 2.</_></rects>
      <tilted>0</tilted></_>
    <_>
      <rects>
        <_>
          18 17 1 3 -1.</_>
        <_>
          18 18 1 1 3.</_></rects>
      <tilted>0</tilted></_>
    <_>
      <rects>
        <_>
          19 4 2 5 -1.</_>
        <_>
          20 4 1 5 2.</_></rects>
      <tilted>0</tilted></_>
    <_>
      <rects>
        <_>
          19 14 6 6 -1.</_>
        <_>
          19 14 3 3 2.</_>
        <_>
          22 17 3 3 2.</_></rects>
      <tilted>0</tilted></_>
    <_>
      <rects>
        <_>
          20 15 4 5 -1.</_>
        <_>
          22 15 2 5 2.</_></rects>
      <tilted>0</tilted></_>
    <_>
      <rects>
        <_>
          23 9 2 7 -1.</_>
        <_>
          24 9 1 7 2.</_></rects>
      <tilted>0</tilted></_>
    <_>
      <rects>
        <_>
          23 11 2 9 -1.</_>
        <_>
          24 11 1 9 2.</_></rects>
      <tilted>0</tilted></_></features></cascade>
</opencv_storage>